################################################################################
# Neural network connection values (weights and biases).
################################################################################
# Col  Name       Description
################################################################################
# 1    connection Neural network connection value.
# 2    t          Connection type (a = weight, b = bias).
# 3    index      Index enumerating weights.
# 4    l_s        Starting point layer (end point layer for biases).
# 5    n_s        Starting point neuron in starting layer (end point neuron for biases).
# 6    l_e        End point layer.
# 7    n_e        End point neuron in end layer.
################################################################################
#                      1 2         3     4     5     6     7
#             connection t     index   l_s   n_s   l_e   n_e
############################################################
 -1.2027186940415531E-01 a         1     0     1     1     1
 -2.6290294693573973E-01 a         2     0     1     1     2
 -4.5990499447099648E-01 a         3     0     1     1     3
  3.0371863301560970E-01 a         4     0     1     1     4
  3.3185816349878516E-01 a         5     0     1     1     5
 -3.4480073295898434E-01 a         6     0     1     1     6
  1.2749345811629682E+00 a         7     0     1     1     7
 -3.1127986214468911E-01 a         8     0     1     1     8
 -6.7468931843597979E-01 a         9     0     1     1     9
  6.0699758980423790E-01 a        10     0     1     1    10
  3.4490344053384253E-01 a        11     0     1     1    11
  2.6699263199942291E-01 a        12     0     1     1    12
 -6.0726864960172300E-01 a        13     0     1     1    13
  4.8212057233452077E-01 a        14     0     1     1    14
  5.7065601851146652E-01 a        15     0     1     1    15
 -9.5495909910866872E-01 a        16     0     1     1    16
  5.7904373749273175E-01 a        17     0     1     1    17
  2.0290304535336379E-01 a        18     0     1     1    18
 -9.0644724474852487E-02 a        19     0     1     1    19
 -5.3501682893610049E-02 a        20     0     1     1    20
  1.8377409061493868E-01 a        21     0     2     1     1
  5.6014574111068727E-01 a        22     0     2     1     2
  4.8636721740625305E-01 a        23     0     2     1     3
 -4.1962655619824185E-01 a        24     0     2     1     4
 -8.0739847226847894E-01 a        25     0     2     1     5
 -7.9730983427705571E-01 a        26     0     2     1     6
 -1.5665823176864451E+00 a        27     0     2     1     7
  1.0481887807959889E+00 a        28     0     2     1     8
  3.1929744092142703E-01 a        29     0     2     1     9
 -7.8477954800524075E-01 a        30     0     2     1    10
  2.6754040350671165E-01 a        31     0     2     1    11
  2.4478297326144663E-01 a        32     0     2     1    12
  2.7125706958857188E-01 a        33     0     2     1    13
 -3.7519234168961280E-01 a        34     0     2     1    14
 -5.0464030752933231E-01 a        35     0     2     1    15
  1.1068165038990168E+00 a        36     0     2     1    16
 -1.1857508264355281E+00 a        37     0     2     1    17
 -5.3964657016265627E-01 a        38     0     2     1    18
 -4.8047900462057709E-02 a        39     0     2     1    19
  4.6242234679455713E-01 a        40     0     2     1    20
 -7.3880826129839849E-01 a        41     0     3     1     1
 -3.7229040035515809E-01 a        42     0     3     1     2
  2.5588908124849497E-01 a        43     0     3     1     3
  1.3580170652855367E-01 a        44     0     3     1     4
 -3.6103245183355298E-01 a        45     0     3     1     5
  1.0728080201234405E+00 a        46     0     3     1     6
 -7.5946553665890570E-01 a        47     0     3     1     7
 -2.0790129161780768E-01 a        48     0     3     1     8
  1.3817156980574601E+00 a        49     0     3     1     9
 -6.8842905632163265E-01 a        50     0     3     1    10
  1.4538658796235387E-01 a        51     0     3     1    11
 -1.6283046625592115E-01 a        52     0     3     1    12
  3.6532899812019570E-02 a        53     0     3     1    13
 -1.0697870869801751E+00 a        54     0     3     1    14
  4.5874155109568959E-01 a        55     0     3     1    15
  8.0731878605376584E-01 a        56     0     3     1    16
 -2.8897708605487277E-01 a        57     0     3     1    17
 -2.5866444067079014E-01 a        58     0     3     1    18
  7.6584271010764216E-01 a        59     0     3     1    19
  5.9843707251611600E-01 a        60     0     3     1    20
  8.8697763031285315E-01 a        61     0     4     1     1
 -3.4423856131677433E-01 a        62     0     4     1     2
 -9.4680162085692565E-01 a        63     0     4     1     3
  1.6696005309585166E-03 a        64     0     4     1     4
  8.7417213092891810E-01 a        65     0     4     1     5
  1.3405474519967289E+00 a        66     0     4     1     6
  1.4977288173585119E+00 a        67     0     4     1     7
 -8.2845588751854160E-01 a        68     0     4     1     8
 -1.0091526562420055E+00 a        69     0     4     1     9
  1.4618374545468602E+00 a        70     0     4     1    10
 -1.1372536094408672E+00 a        71     0     4     1    11
 -8.0149557053900788E-01 a        72     0     4     1    12
  1.6210946329305445E-01 a        73     0     4     1    13
  6.0516396354534252E-01 a        74     0     4     1    14
  1.2897815587889941E-01 a        75     0     4     1    15
 -1.3388918801548224E+00 a        76     0     4     1    16
  1.5756499448082548E+00 a        77     0     4     1    17
  9.7715365397349740E-01 a        78     0     4     1    18
 -4.0919770397390226E-01 a        79     0     4     1    19
 -9.7537704091357824E-01 a        80     0     4     1    20
  4.2048841980935686E-01 a        81     0     5     1     1
 -3.5393529057708040E-01 a        82     0     5     1     2
  7.3524532580372004E-01 a        83     0     5     1     3
 -7.5288694307046966E-01 a        84     0     5     1     4
  6.6401796228272936E-01 a        85     0     5     1     5
 -4.6038313844725703E-01 a        86     0     5     1     6
  4.5644701385368414E-01 a        87     0     5     1     7
 -5.7179221794454249E-01 a        88     0     5     1     8
  4.9900156000607154E-01 a        89     0     5     1     9
  2.2280213593801299E-01 a        90     0     5     1    10
 -3.1342294897603906E-01 a        91     0     5     1    11
  7.4960948877778921E-01 a        92     0     5     1    12
  5.0548901330552143E-01 a        93     0     5     1    13
  2.7387707347637907E-01 a        94     0     5     1    14
  6.3005736755398223E-02 a        95     0     5     1    15
  4.7441289167435785E-01 a        96     0     5     1    16
 -8.3220147051766655E-02 a        97     0     5     1    17
 -7.0135090934925565E-02 a        98     0     5     1    18
 -4.1405270359570628E-01 a        99     0     5     1    19
 -3.3447437132725255E-01 a       100     0     5     1    20
 -1.8121429706556913E+00 a       101     0     6     1     1
  5.1938799742379338E-01 a       102     0     6     1     2
  4.7637864565664567E-01 a       103     0     6     1     3
  5.9482684989927226E-01 a       104     0     6     1     4
 -6.3448900828796351E-01 a       105     0     6     1     5
 -1.2491060759136536E+00 a       106     0     6     1     6
 -5.9040133169986719E-01 a       107     0     6     1     7
  1.0123979267737051E+00 a       108     0     6     1     8
  3.5443648686442070E-01 a       109     0     6     1     9
 -6.5591313216684033E-01 a       110     0     6     1    10
  1.5059355788812099E+00 a       111     0     6     1    11
  7.6610891326207609E-01 a       112     0     6     1    12
 -2.9866308367469493E-02 a       113     0     6     1    13
 -4.7999272979460722E-01 a       114     0     6     1    14
 -1.3476424854566940E-01 a       115     0     6     1    15
  6.1253049604721543E-01 a       116     0     6     1    16
 -2.9346726387174454E-01 a       117     0     6     1    17
 -7.1127175143206633E-01 a       118     0     6     1    18
  3.5898644429816312E-01 a       119     0     6     1    19
  5.3677928022651578E-01 a       120     0     6     1    20
  3.1024383080206303E-01 a       121     0     7     1     1
  2.0349572461085089E-01 a       122     0     7     1     2
 -1.8187720797691646E-02 a       123     0     7     1     3
  1.8314249438819055E-01 a       124     0     7     1     4
 -2.3814386988576700E-01 a       125     0     7     1     5
  4.9950701505070649E-01 a       126     0     7     1     6
  4.2726988615083827E-01 a       127     0     7     1     7
  1.1868033533739533E+00 a       128     0     7     1     8
 -7.7230264438922003E-01 a       129     0     7     1     9
  9.7434967200056999E-01 a       130     0     7     1    10
 -1.4923596799346661E-01 a       131     0     7     1    11
 -8.4677579053419577E-02 a       132     0     7     1    12
 -1.5295687022200208E+00 a       133     0     7     1    13
  6.2594888910638680E-01 a       134     0     7     1    14
 -1.2482898868693810E+00 a       135     0     7     1    15
 -7.9006384196066745E-02 a       136     0     7     1    16
 -1.6115694760540888E-01 a       137     0     7     1    17
  3.4090109045692318E-01 a       138     0     7     1    18
  1.8891603566600793E-01 a       139     0     7     1    19
  9.9913922097465113E-01 a       140     0     7     1    20
  1.4079164245423931E-01 a       141     0     8     1     1
 -1.9152494346432437E-02 a       142     0     8     1     2
 -6.3224364561543539E-02 a       143     0     8     1     3
 -1.9791542332162942E-01 a       144     0     8     1     4
 -6.9218996015485912E-01 a       145     0     8     1     5
  6.1589951322472480E-01 a       146     0     8     1     6
  5.0650476808213407E-01 a       147     0     8     1     7
 -1.1325699105934315E+00 a       148     0     8     1     8
  1.9369431109918356E-01 a       149     0     8     1     9
 -1.7138264631755251E-01 a       150     0     8     1    10
 -8.7658694259190678E-02 a       151     0     8     1    11
 -4.6415614109111553E-01 a       152     0     8     1    12
 -8.3164122105144844E-01 a       153     0     8     1    13
  2.0259971978059185E-01 a       154     0     8     1    14
 -5.1639762831901259E-01 a       155     0     8     1    15
 -3.5992607023181533E-01 a       156     0     8     1    16
 -5.5368596699890271E-01 a       157     0     8     1    17
  5.5059416712516474E-01 a       158     0     8     1    18
  1.1825407887433396E-01 a       159     0     8     1    19
 -1.7517122574763280E+00 a       160     0     8     1    20
  3.5463468131930803E-01 a       161     0     9     1     1
 -8.2591675987647051E-01 a       162     0     9     1     2
 -1.7928296012899994E-01 a       163     0     9     1     3
  1.4929297356633672E-01 a       164     0     9     1     4
  4.5079784177872972E-01 a       165     0     9     1     5
  3.7391068930666432E-02 a       166     0     9     1     6
 -2.1675763394304509E-01 a       167     0     9     1     7
 -7.8223454922629421E-01 a       168     0     9     1     8
  2.3911786340633190E-01 a       169     0     9     1     9
 -9.2936151210863982E-01 a       170     0     9     1    10
  3.2410170551152973E-01 a       171     0     9     1    11
  6.3671382520843833E-01 a       172     0     9     1    12
  5.6689808321034607E-01 a       173     0     9     1    13
 -1.8365317248711574E-01 a       174     0     9     1    14
  1.0972189936370402E+00 a       175     0     9     1    15
 -8.9026509063307502E-02 a       176     0     9     1    16
  4.5988990741153990E-01 a       177     0     9     1    17
 -4.2420843510677353E-01 a       178     0     9     1    18
 -8.2308610128420376E-02 a       179     0     9     1    19
  4.6386147148082862E-01 a       180     0     9     1    20
  4.9092243030457211E-01 a       181     0    10     1     1
 -3.1675763038420340E-01 a       182     0    10     1     2
 -3.6707394815924277E-01 a       183     0    10     1     3
 -1.1334003048775723E-01 a       184     0    10     1     4
  6.4678030712674839E-01 a       185     0    10     1     5
 -2.1125911007935344E-01 a       186     0    10     1     6
  7.3466872385256482E-02 a       187     0    10     1     7
  5.3634326371719854E-01 a       188     0    10     1     8
 -1.9988720350486214E-01 a       189     0    10     1     9
 -9.9384841600367924E-02 a       190     0    10     1    10
 -1.7703852089694880E-01 a       191     0    10     1    11
  1.3650754454420119E-01 a       192     0    10     1    12
  2.5081935831173013E-01 a       193     0    10     1    13
 -1.8493586509640975E-01 a       194     0    10     1    14
  1.1975372791358921E-01 a       195     0    10     1    15
  2.2380003099515688E-01 a       196     0    10     1    16
  1.4416938864233797E-01 a       197     0    10     1    17
 -1.5449837085530951E-01 a       198     0    10     1    18
 -2.0174808560489185E-01 a       199     0    10     1    19
  4.2120941566094378E-01 a       200     0    10     1    20
  2.2789154262955752E-01 a       201     0    11     1     1
  2.0377142715509339E-01 a       202     0    11     1     2
  1.7320340387159774E-01 a       203     0    11     1     3
 -8.8272305420333722E-02 a       204     0    11     1     4
 -5.8921344877154981E-02 a       205     0    11     1     5
 -5.8220665443097563E-02 a       206     0    11     1     6
 -6.6913266610150986E-03 a       207     0    11     1     7
  4.7251178104902314E-01 a       208     0    11     1     8
 -2.2980584589672312E-01 a       209     0    11     1     9
  5.3124134048814831E-01 a       210     0    11     1    10
 -1.8111839596622370E-01 a       211     0    11     1    11
 -2.1327199621483600E-01 a       212     0    11     1    12
 -8.8263514428114664E-01 a       213     0    11     1    13
  2.7730884650433316E-02 a       214     0    11     1    14
 -7.0919008723864849E-02 a       215     0    11     1    15
  1.2429014257323123E-01 a       216     0    11     1    16
 -3.2300641492482414E-02 a       217     0    11     1    17
  5.6682325579263504E-01 a       218     0    11     1    18
  2.6966117588449129E-01 a       219     0    11     1    19
 -4.1211715325552856E-01 a       220     0    11     1    20
 -1.4965996319426095E-01 a       221     0    12     1     1
  6.9624734181672987E-01 a       222     0    12     1     2
  3.1464311214849877E-01 a       223     0    12     1     3
  3.3070710464132952E-01 a       224     0    12     1     4
  3.8117627312227065E-01 a       225     0    12     1     5
  1.0249590821360424E-01 a       226     0    12     1     6
  2.0400587092598560E-01 a       227     0    12     1     7
 -2.8425416150323546E-01 a       228     0    12     1     8
  2.7392116466531575E-02 a       229     0    12     1     9
  3.0170904996433362E-01 a       230     0    12     1    10
  2.0771648521905439E-01 a       231     0    12     1    11
 -5.6483197681563579E-01 a       232     0    12     1    12
  2.9874419722905715E-01 a       233     0    12     1    13
  2.9481528330806389E-01 a       234     0    12     1    14
  1.5093070040224971E-01 a       235     0    12     1    15
  6.3906281535851317E-02 a       236     0    12     1    16
 -4.0814956696715499E-01 a       237     0    12     1    17
  1.0961169492099905E-01 a       238     0    12     1    18
 -1.5959332245897820E-01 a       239     0    12     1    19
  2.1649894070352982E-01 a       240     0    12     1    20
  3.0640404759045270E-01 a       241     0    13     1     1
 -3.4678346559522139E-01 a       242     0    13     1     2
 -2.1462744691414476E-01 a       243     0    13     1     3
  7.2225473663381001E-02 a       244     0    13     1     4
 -1.2218401106891512E-01 a       245     0    13     1     5
 -1.1059859550341911E-01 a       246     0    13     1     6
 -2.7728306186729218E-01 a       247     0    13     1     7
 -3.7107816970171414E-01 a       248     0    13     1     8
  1.6703808647301807E-01 a       249     0    13     1     9
 -5.0889306923565181E-01 a       250     0    13     1    10
 -5.1539926930503382E-02 a       251     0    13     1    11
 -2.9743499960791009E-02 a       252     0    13     1    12
  5.7042114158358548E-01 a       253     0    13     1    13
 -2.5170651784607778E-01 a       254     0    13     1    14
 -3.8083673656179408E-02 a       255     0    13     1    15
 -7.0925834183659511E-02 a       256     0    13     1    16
  3.3865229981374528E-01 a       257     0    13     1    17
 -2.9198443276106145E-01 a       258     0    13     1    18
 -8.4783263479900228E-02 a       259     0    13     1    19
 -6.3700470037527393E-02 a       260     0    13     1    20
 -8.2062053671991181E-02 a       261     0    14     1     1
 -2.6472905411329334E-01 a       262     0    14     1     2
 -1.0344360174331128E-01 a       263     0    14     1     3
 -2.2780232723722846E-01 a       264     0    14     1     4
 -1.4790632686003993E-02 a       265     0    14     1     5
  3.3752562470296385E-02 a       266     0    14     1     6
  4.6925797251224401E-03 a       267     0    14     1     7
  4.5100965175600576E-02 a       268     0    14     1     8
  4.3267436698817739E-02 a       269     0    14     1     9
  6.0977274786007646E-02 a       270     0    14     1    10
  1.1957430596346852E-01 a       271     0    14     1    11
 -1.2008507549600636E-01 a       272     0    14     1    12
  6.0183375592297833E-02 a       273     0    14     1    13
 -1.7556254913179772E-02 a       274     0    14     1    14
 -1.9663761680387682E-02 a       275     0    14     1    15
  1.6344422115018548E-01 a       276     0    14     1    16
  6.2882213233714360E-02 a       277     0    14     1    17
 -1.6657627565903269E-01 a       278     0    14     1    18
 -7.7586714169195534E-02 a       279     0    14     1    19
  6.3958889377361258E-02 a       280     0    14     1    20
  1.2587171671082489E-01 a       281     0    15     1     1
  2.8187812016959934E-01 a       282     0    15     1     2
  1.3352702184790247E-01 a       283     0    15     1     3
  2.0218669665244781E-02 a       284     0    15     1     4
 -1.7311581082887753E-01 a       285     0    15     1     5
 -2.4247069878215988E-01 a       286     0    15     1     6
  1.4134138186102513E-01 a       287     0    15     1     7
  6.2418483195108808E-02 a       288     0    15     1     8
  2.3002825962261646E-02 a       289     0    15     1     9
  2.2592484858820799E-01 a       290     0    15     1    10
  1.0157564231062138E-01 a       291     0    15     1    11
 -8.0135435182202855E-02 a       292     0    15     1    12
  2.8405690711199520E-02 a       293     0    15     1    13
  2.6896517707927542E-01 a       294     0    15     1    14
  2.2702864623309013E-01 a       295     0    15     1    15
  3.4970175904193440E-01 a       296     0    15     1    16
 -5.7888174052790987E-02 a       297     0    15     1    17
  5.7079504650023330E-02 a       298     0    15     1    18
  1.8994241855743466E-01 a       299     0    15     1    19
 -7.0871062094603157E-02 a       300     0    15     1    20
 -1.9771815287416367E-02 a       301     0    16     1     1
  1.2874171116548577E-01 a       302     0    16     1     2
 -1.9770260093423131E-01 a       303     0    16     1     3
  2.1220608246849206E-02 a       304     0    16     1     4
  1.1416152745143063E-01 a       305     0    16     1     5
 -3.6033873748299465E-02 a       306     0    16     1     6
 -5.1637286179380251E-02 a       307     0    16     1     7
 -1.2895558518704964E-01 a       308     0    16     1     8
 -3.2003421692621332E-02 a       309     0    16     1     9
 -1.1227810085333195E-01 a       310     0    16     1    10
  8.1702965229002278E-02 a       311     0    16     1    11
 -4.6192147302211356E-02 a       312     0    16     1    12
  1.9399356204898041E-01 a       313     0    16     1    13
  8.0741945481948532E-02 a       314     0    16     1    14
 -1.5980305087161950E-01 a       315     0    16     1    15
  9.0671326235223296E-02 a       316     0    16     1    16
  2.4945562417217153E-03 a       317     0    16     1    17
 -1.7153826705636584E-02 a       318     0    16     1    18
 -2.0020822955500001E-01 a       319     0    16     1    19
 -1.7888817972025552E-02 a       320     0    16     1    20
  1.7149545960469828E-01 a       321     0    17     1     1
  3.5473905237825780E-02 a       322     0    17     1     2
  4.3147532446534698E-01 a       323     0    17     1     3
  1.9228474494964451E-01 a       324     0    17     1     4
 -1.6433122652251470E-01 a       325     0    17     1     5
 -1.6547435557305887E-01 a       326     0    17     1     6
 -9.2468224435444918E-02 a       327     0    17     1     7
 -1.5555624191424247E-01 a       328     0    17     1     8
 -2.9915746059913334E-01 a       329     0    17     1     9
 -3.0707226311157143E-01 a       330     0    17     1    10
 -2.9702076868089650E-01 a       331     0    17     1    11
  2.8223774190059775E-01 a       332     0    17     1    12
 -1.0346498318835821E-02 a       333     0    17     1    13
  6.8373230221095678E-03 a       334     0    17     1    14
 -4.0334652264730077E-02 a       335     0    17     1    15
 -2.7312307892044054E-02 a       336     0    17     1    16
  2.7021150237393304E-01 a       337     0    17     1    17
 -4.8485610683681778E-03 a       338     0    17     1    18
 -1.7318974511964239E-01 a       339     0    17     1    19
  1.7331033747588936E-01 a       340     0    17     1    20
 -4.1425518530069767E-02 a       341     0    18     1     1
 -4.0589931850489445E-02 a       342     0    18     1     2
 -2.3852354007352766E-01 a       343     0    18     1     3
 -1.4269149098931155E-02 a       344     0    18     1     4
  1.1114431073353348E-01 a       345     0    18     1     5
 -1.0561028332087217E-02 a       346     0    18     1     6
 -3.8311429214331658E-02 a       347     0    18     1     7
 -4.4436030976260997E-02 a       348     0    18     1     8
  8.0364994324828923E-02 a       349     0    18     1     9
  1.1069625239859026E-02 a       350     0    18     1    10
  1.3378724991206972E-01 a       351     0    18     1    11
 -4.2316165571527155E-02 a       352     0    18     1    12
 -2.4952524014973883E-02 a       353     0    18     1    13
  4.6517519598218302E-02 a       354     0    18     1    14
 -1.3482120575835047E-01 a       355     0    18     1    15
 -5.2369331078464761E-02 a       356     0    18     1    16
 -4.3393192503240786E-02 a       357     0    18     1    17
 -1.1567787097850054E-02 a       358     0    18     1    18
  6.9158467676098345E-02 a       359     0    18     1    19
 -1.5332853772347445E-02 a       360     0    18     1    20
  9.0048608833041299E-01 a       361     0    19     1     1
  6.4175812567229915E-02 a       362     0    19     1     2
 -6.8290723819257415E-01 a       363     0    19     1     3
 -2.8104570715806493E-01 a       364     0    19     1     4
  2.6012392138207552E-01 a       365     0    19     1     5
 -1.9702705575175775E-01 a       366     0    19     1     6
 -1.5217937696536412E+00 a       367     0    19     1     7
 -8.5052469691953747E-01 a       368     0    19     1     8
 -6.4138177834513765E-01 a       369     0    19     1     9
  1.0992791600990952E-01 a       370     0    19     1    10
 -1.2832044628502912E-01 a       371     0    19     1    11
 -6.5292367278730222E-03 a       372     0    19     1    12
  4.3089270281922165E-01 a       373     0    19     1    13
 -1.8600187510961669E-01 a       374     0    19     1    14
 -5.8223916579123525E-01 a       375     0    19     1    15
 -7.2598379403437729E-01 a       376     0    19     1    16
 -3.9388078084095524E-01 a       377     0    19     1    17
  1.2271885621690308E-01 a       378     0    19     1    18
 -6.1724988539430337E-01 a       379     0    19     1    19
 -1.8110189980158276E-01 a       380     0    19     1    20
 -1.9665725997125016E-01 a       381     0    20     1     1
  4.9846204291092815E-03 a       382     0    20     1     2
  2.3159316062942095E-01 a       383     0    20     1     3
  4.0599127904580687E-02 a       384     0    20     1     4
 -2.8038884553506706E-02 a       385     0    20     1     5
 -7.2425037470720405E-02 a       386     0    20     1     6
  3.0231969642419843E-01 a       387     0    20     1     7
  2.0053305327820858E-01 a       388     0    20     1     8
  1.6411355357904930E-01 a       389     0    20     1     9
  2.9671633177204046E-02 a       390     0    20     1    10
 -1.6615267639437989E-01 a       391     0    20     1    11
 -3.8089015390942657E-02 a       392     0    20     1    12
 -1.9110182621171398E-01 a       393     0    20     1    13
  1.8818312741708829E-01 a       394     0    20     1    14
 -2.1988675994396784E-01 a       395     0    20     1    15
  1.6263160703475749E-01 a       396     0    20     1    16
 -6.6096241389354174E-02 a       397     0    20     1    17
 -1.8753181481985193E-01 a       398     0    20     1    18
  2.1536072717104177E-01 a       399     0    20     1    19
 -8.5584231263124325E-02 a       400     0    20     1    20
 -8.3341993985561164E-02 a       401     0    21     1     1
 -2.7629106283862148E-01 a       402     0    21     1     2
 -5.0510640257585038E-01 a       403     0    21     1     3
  1.6531797027065590E-01 a       404     0    21     1     4
 -2.2677409240174332E-01 a       405     0    21     1     5
  6.4910405925920733E-02 a       406     0    21     1     6
 -2.5959774733183860E-01 a       407     0    21     1     7
 -2.8511052384672386E-01 a       408     0    21     1     8
  3.5342603061742711E-01 a       409     0    21     1     9
  3.0003621086570775E-01 a       410     0    21     1    10
  3.6032880210811430E-01 a       411     0    21     1    11
 -6.7044074299425535E-02 a       412     0    21     1    12
 -6.4225794104694478E-02 a       413     0    21     1    13
 -1.4142489147153353E-01 a       414     0    21     1    14
  1.6042391162224967E-01 a       415     0    21     1    15
 -2.6356902570936902E-01 a       416     0    21     1    16
 -1.6348772244278215E-01 a       417     0    21     1    17
 -2.2845950022511083E-01 a       418     0    21     1    18
  1.0284178929576016E-01 a       419     0    21     1    19
 -7.5018105117205428E-02 a       420     0    21     1    20
 -1.2675295451198160E-01 a       421     0    22     1     1
  4.9294142060257028E-02 a       422     0    22     1     2
  3.8134995982878095E-01 a       423     0    22     1     3
  3.5392890771837035E-02 a       424     0    22     1     4
  1.2483001103637213E-01 a       425     0    22     1     5
  1.6619753488534617E-01 a       426     0    22     1     6
  4.4566347275410850E-01 a       427     0    22     1     7
  5.0965840660161721E-01 a       428     0    22     1     8
 -6.4522340840935430E-02 a       429     0    22     1     9
  2.4332548415728558E-02 a       430     0    22     1    10
  1.1202021390039915E-01 a       431     0    22     1    11
  1.5400699205299606E-01 a       432     0    22     1    12
 -3.5072170713085105E-02 a       433     0    22     1    13
 -8.2641145767772345E-02 a       434     0    22     1    14
  1.9488957421400041E-01 a       435     0    22     1    15
  2.1702401108006950E-01 a       436     0    22     1    16
  1.4496857481551095E-01 a       437     0    22     1    17
  3.6901792302188813E-01 a       438     0    22     1    18
  1.2976721728696725E-01 a       439     0    22     1    19
  1.0839481340088195E-01 a       440     0    22     1    20
 -4.5202768680145861E-01 a       441     0    23     1     1
  5.9797015416480426E-01 a       442     0    23     1     2
  4.6138117645041049E-01 a       443     0    23     1     3
  4.2032736014099187E-01 a       444     0    23     1     4
 -3.8310860532171698E-02 a       445     0    23     1     5
  1.1462113558746496E-01 a       446     0    23     1     6
  7.2848729339757323E-01 a       447     0    23     1     7
  1.1757412860491782E-01 a       448     0    23     1     8
  1.2676138125299918E-01 a       449     0    23     1     9
 -7.8065429078304993E-01 a       450     0    23     1    10
 -2.8965629620238575E-01 a       451     0    23     1    11
 -1.0274041987207057E+00 a       452     0    23     1    12
  3.2998425755653821E-01 a       453     0    23     1    13
  2.0760329845408287E-01 a       454     0    23     1    14
 -1.7869061431978550E-03 a       455     0    23     1    15
  2.2389536909296850E-01 a       456     0    23     1    16
 -2.3255942667293386E-01 a       457     0    23     1    17
  4.8106222783202046E-01 a       458     0    23     1    18
  3.3240758798716602E-01 a       459     0    23     1    19
 -7.6446871511221492E-01 a       460     0    23     1    20
  3.4966183255131233E-01 a       461     0    24     1     1
 -7.0007494721846919E-01 a       462     0    24     1     2
 -4.5199049659417442E-02 a       463     0    24     1     3
 -1.6907182193153275E-01 a       464     0    24     1     4
  1.2483132905068431E-01 a       465     0    24     1     5
 -2.6803778616314788E-01 a       466     0    24     1     6
 -4.9957477302331882E-01 a       467     0    24     1     7
  2.1357413494130034E-01 a       468     0    24     1     8
 -3.1076720239712269E-01 a       469     0    24     1     9
  4.5787924109881577E-02 a       470     0    24     1    10
 -2.3973925380345890E-01 a       471     0    24     1    11
  1.8509104417807207E-01 a       472     0    24     1    12
 -1.1766221894753057E-02 a       473     0    24     1    13
 -7.3770724220796169E-01 a       474     0    24     1    14
 -6.1105009401126946E-02 a       475     0    24     1    15
 -1.1857927531986796E-01 a       476     0    24     1    16
  5.6607299476613870E-01 a       477     0    24     1    17
  1.5695751847303999E-01 a       478     0    24     1    18
 -1.4446706386128974E-01 a       479     0    24     1    19
  8.4316606462589760E-01 a       480     0    24     1    20
 -4.6524916507736679E-02 a       481     0    25     1     1
  4.8986975465872837E-03 a       482     0    25     1     2
  1.5457039711906023E-01 a       483     0    25     1     3
  1.9982007321252404E-01 a       484     0    25     1     4
  2.4791878916307250E-01 a       485     0    25     1     5
  7.6931371526517047E-03 a       486     0    25     1     6
 -4.6415152091919328E-02 a       487     0    25     1     7
 -1.6396903486049008E-01 a       488     0    25     1     8
 -4.2287630350427971E-02 a       489     0    25     1     9
  9.6923144688057059E-02 a       490     0    25     1    10
  1.3467600231146465E-01 a       491     0    25     1    11
  2.0125399700064539E-01 a       492     0    25     1    12
 -3.4804175949800187E-01 a       493     0    25     1    13
  1.0366459851935306E-01 a       494     0    25     1    14
 -4.0615703597872788E-01 a       495     0    25     1    15
 -1.9478868662142525E-02 a       496     0    25     1    16
 -1.4252510728741580E-01 a       497     0    25     1    17
 -1.6241305908683886E-02 a       498     0    25     1    18
  3.1021598131106793E-02 a       499     0    25     1    19
 -2.6326404426927336E-01 a       500     0    25     1    20
  2.3373826827158894E-01 a       501     0    26     1     1
  2.0663417662226241E-01 a       502     0    26     1     2
 -6.8939615450458169E-01 a       503     0    26     1     3
  3.9304434360746143E-01 a       504     0    26     1     4
 -5.0194687951616213E-01 a       505     0    26     1     5
 -1.5832694250666246E-01 a       506     0    26     1     6
 -8.2349771156807708E-02 a       507     0    26     1     7
 -5.0405732914988455E-01 a       508     0    26     1     8
  4.4061138851987208E-01 a       509     0    26     1     9
 -4.1528083268583316E-01 a       510     0    26     1    10
 -7.4920225626290138E-02 a       511     0    26     1    11
 -4.9453235256637845E-01 a       512     0    26     1    12
  1.4921286770175127E-01 a       513     0    26     1    13
  4.3707576709313889E-01 a       514     0    26     1    14
  1.2618809776018933E-01 a       515     0    26     1    15
 -4.5063671835791813E-01 a       516     0    26     1    16
  1.9203193541725100E-01 a       517     0    26     1    17
 -4.2229702152050141E-01 a       518     0    26     1    18
 -1.4665877388473879E-03 a       519     0    26     1    19
  1.2460755936474074E-01 a       520     0    26     1    20
 -5.2856449689489604E-01 a       521     0    27     1     1
  8.8316724560574345E-01 a       522     0    27     1     2
  1.2074904446423532E-01 a       523     0    27     1     3
 -5.3932193589409753E-02 a       524     0    27     1     4
 -1.3447546683729117E-01 a       525     0    27     1     5
 -4.4925236215106690E-01 a       526     0    27     1     6
  2.7461052381654644E-01 a       527     0    27     1     7
  1.1313785798542673E+00 a       528     0    27     1     8
 -1.2942323830702426E-01 a       529     0    27     1     9
 -1.3817202213041779E-01 a       530     0    27     1    10
 -9.2344708419916410E-01 a       531     0    27     1    11
  6.2807707297901083E-01 a       532     0    27     1    12
  6.0637567253298252E-01 a       533     0    27     1    13
 -1.7867111234425950E-01 a       534     0    27     1    14
  5.7687891096632704E-01 a       535     0    27     1    15
  2.5864779579056923E-01 a       536     0    27     1    16
 -2.3986802565675636E-01 a       537     0    27     1    17
 -2.5797134109289038E-01 a       538     0    27     1    18
  1.3907203592509232E-01 a       539     0    27     1    19
 -5.0883485416315621E-01 a       540     0    27     1    20
  3.5123838395472992E-02 a       541     0    28     1     1
  1.3469083781559341E-02 a       542     0    28     1     2
 -9.2932695547245814E-02 a       543     0    28     1     3
 -7.3706099912284925E-02 a       544     0    28     1     4
 -1.5071405852913555E-01 a       545     0    28     1     5
  1.4765414400158147E-01 a       546     0    28     1     6
  1.2705680175390335E-01 a       547     0    28     1     7
  7.0314168977804264E-02 a       548     0    28     1     8
 -4.7087475759565289E-02 a       549     0    28     1     9
  6.6478068210959040E-03 a       550     0    28     1    10
  2.7046215498913762E-01 a       551     0    28     1    11
 -1.4825771352846345E-01 a       552     0    28     1    12
  1.1110290780461674E-01 a       553     0    28     1    13
 -5.5268656702785801E-02 a       554     0    28     1    14
  4.8734322301215421E-01 a       555     0    28     1    15
  9.5665882891434462E-03 a       556     0    28     1    16
  1.6405680944802842E-01 a       557     0    28     1    17
  1.8105817131076260E-01 a       558     0    28     1    18
 -9.2531827862929350E-02 a       559     0    28     1    19
  1.4989683905071724E-01 a       560     0    28     1    20
 -5.4019439347357456E-01 a       561     0    29     1     1
 -1.1174015948127074E-01 a       562     0    29     1     2
 -1.6821027490717746E-01 a       563     0    29     1     3
 -4.6888130991927213E-01 a       564     0    29     1     4
  3.8816870403474524E-01 a       565     0    29     1     5
  1.7512950029210650E-01 a       566     0    29     1     6
  7.9106358674158397E-02 a       567     0    29     1     7
  3.1993732979940334E-02 a       568     0    29     1     8
 -2.5940243674122421E-01 a       569     0    29     1     9
  2.8329240930639527E-01 a       570     0    29     1    10
  4.4498420192795907E-01 a       571     0    29     1    11
  8.7253101746602768E-01 a       572     0    29     1    12
 -3.7309470394960992E-02 a       573     0    29     1    13
  1.5653184731348586E-02 a       574     0    29     1    14
 -2.6842917003659950E-01 a       575     0    29     1    15
  9.3342061061791291E-03 a       576     0    29     1    16
 -3.1846706383774542E-02 a       577     0    29     1    17
 -4.3284454988999313E-02 a       578     0    29     1    18
  1.4390034573306337E-01 a       579     0    29     1    19
  3.2222424093530722E-01 a       580     0    29     1    20
 -9.6708908368922569E-02 a       581     0    30     1     1
 -1.6417507536379866E-01 a       582     0    30     1     2
 -7.1021604861803089E-02 a       583     0    30     1     3
 -6.8827101420978598E-01 a       584     0    30     1     4
 -1.4070329095540032E-01 a       585     0    30     1     5
  5.6743169675716229E-02 a       586     0    30     1     6
  8.6682952234541324E-02 a       587     0    30     1     7
  1.6509366283349258E-02 a       588     0    30     1     8
  2.3199462940105950E-01 a       589     0    30     1     9
  5.0873650161174688E-01 a       590     0    30     1    10
 -6.1727945341329242E-02 a       591     0    30     1    11
 -1.2668794852330156E-01 a       592     0    30     1    12
 -9.5151457808806600E-02 a       593     0    30     1    13
  1.3780631021878098E-01 a       594     0    30     1    14
 -1.0976888994474021E-01 a       595     0    30     1    15
  3.6210065303505307E-01 a       596     0    30     1    16
 -2.5644612149654011E-01 a       597     0    30     1    17
 -1.0149958102861152E-02 a       598     0    30     1    18
  7.8909009834998767E-02 a       599     0    30     1    19
 -5.7193298517789988E-02 a       600     0    30     1    20
  2.8553320633671869E-01 b       601     1     1
 -2.4266595508551866E-01 b       602     1     2
 -1.1889025834582036E-01 b       603     1     3
 -2.3141082421026780E-02 b       604     1     4
 -1.6365056788135601E-01 b       605     1     5
  5.5597150936706308E-01 b       606     1     6
  1.7894557645497272E-01 b       607     1     7
 -8.2264035906353658E-02 b       608     1     8
 -3.9906842489633076E-01 b       609     1     9
 -1.6302585208867007E-01 b       610     1    10
  6.7220917716345075E-03 b       611     1    11
  3.1994893224247020E-02 b       612     1    12
 -1.6596629807738844E-01 b       613     1    13
  1.6581729210394891E-01 b       614     1    14
  4.9519486308056232E-01 b       615     1    15
  4.7510205222648660E-01 b       616     1    16
  5.4580317464620431E-01 b       617     1    17
  3.6485151438777941E-01 b       618     1    18
  6.0175985487201988E-01 b       619     1    19
 -1.0267435351495757E-01 b       620     1    20
 -5.2798434661912841E-01 a       621     1     1     2     1
 -3.5029037686751258E-01 a       622     1     1     2     2
  4.0201200002898096E-01 a       623     1     1     2     3
 -4.3113740090117042E-01 a       624     1     1     2     4
 -5.9760380380275835E-01 a       625     1     1     2     5
 -3.1827004721652036E-01 a       626     1     1     2     6
 -7.0305876969539993E-01 a       627     1     1     2     7
 -3.5210524082661449E-01 a       628     1     1     2     8
  3.5075094845812099E-01 a       629     1     1     2     9
  2.0701900827647995E-01 a       630     1     1     2    10
 -3.3654371542179029E-01 a       631     1     1     2    11
 -3.0397464755423681E-01 a       632     1     1     2    12
  2.0385967562794791E-02 a       633     1     1     2    13
  4.3721935367715420E-01 a       634     1     1     2    14
 -4.7672883041712175E-03 a       635     1     1     2    15
 -4.9370531691423503E-01 a       636     1     1     2    16
  1.6559980122064819E-01 a       637     1     1     2    17
  7.8986239045193107E-01 a       638     1     1     2    18
  3.4313998971163850E-01 a       639     1     1     2    19
  3.6822974022912097E-01 a       640     1     1     2    20
 -2.3685538642295226E-02 a       641     1     2     2     1
  4.1772011001761983E-01 a       642     1     2     2     2
  3.3671937968268978E-01 a       643     1     2     2     3
 -2.1871735019966351E-01 a       644     1     2     2     4
  6.1462071625255665E-01 a       645     1     2     2     5
 -2.6620864867038474E-01 a       646     1     2     2     6
  1.6801057342312867E-01 a       647     1     2     2     7
  4.3725923293635610E-01 a       648     1     2     2     8
  2.4813439706270049E-01 a       649     1     2     2     9
 -4.1200054947121301E-01 a       650     1     2     2    10
  3.3786605852047424E-01 a       651     1     2     2    11
 -1.1337297623047160E-01 a       652     1     2     2    12
  2.8230309285499500E-01 a       653     1     2     2    13
 -6.2893724894595672E-03 a       654     1     2     2    14
 -1.7853568699949546E-01 a       655     1     2     2    15
  5.8913806659260526E-01 a       656     1     2     2    16
 -2.0238592064898855E-01 a       657     1     2     2    17
 -9.2627259642935311E-01 a       658     1     2     2    18
 -4.5205367038957850E-01 a       659     1     2     2    19
 -1.6245009058728302E-01 a       660     1     2     2    20
 -2.4399475043531046E-01 a       661     1     3     2     1
  2.3978622235467184E-01 a       662     1     3     2     2
 -1.3207767562524030E-02 a       663     1     3     2     3
 -2.2135400858996868E-01 a       664     1     3     2     4
  3.6264576175442909E-01 a       665     1     3     2     5
  2.5912881537290700E-01 a       666     1     3     2     6
  2.0403282959970060E-02 a       667     1     3     2     7
  2.3378653504265853E-01 a       668     1     3     2     8
 -1.4426722197765923E-01 a       669     1     3     2     9
 -8.1954592055698022E-02 a       670     1     3     2    10
 -4.6609103701943783E-01 a       671     1     3     2    11
 -1.2167236801259829E-01 a       672     1     3     2    12
  1.4156995357685820E-01 a       673     1     3     2    13
  6.5883272711636742E-02 a       674     1     3     2    14
 -4.5294184717905689E-01 a       675     1     3     2    15
  6.2502322690979562E-01 a       676     1     3     2    16
 -2.0156126176034278E-01 a       677     1     3     2    17
  1.7640200576988616E-01 a       678     1     3     2    18
  2.5612166219883714E-01 a       679     1     3     2    19
 -1.1115865079762491E-01 a       680     1     3     2    20
  6.1678877742660931E-01 a       681     1     4     2     1
  1.8729553226425166E-01 a       682     1     4     2     2
 -3.2059154657383615E-01 a       683     1     4     2     3
  4.9217336879854973E-01 a       684     1     4     2     4
 -1.2126700046269641E-01 a       685     1     4     2     5
 -2.4420676848496387E-01 a       686     1     4     2     6
 -1.7849551403953992E-01 a       687     1     4     2     7
 -8.6755387596989628E-02 a       688     1     4     2     8
  2.2855029699606305E-01 a       689     1     4     2     9
  5.4264226597352627E-01 a       690     1     4     2    10
  2.8322119241075855E-01 a       691     1     4     2    11
 -4.6187968072390131E-03 a       692     1     4     2    12
 -5.0926871346288927E-02 a       693     1     4     2    13
 -4.1644935749227163E-01 a       694     1     4     2    14
  5.8889766554493395E-01 a       695     1     4     2    15
 -6.0811040495854951E-01 a       696     1     4     2    16
  3.6065799059778131E-01 a       697     1     4     2    17
 -1.1388325673984431E-01 a       698     1     4     2    18
 -5.8023246180940968E-01 a       699     1     4     2    19
  1.5950734412676934E-01 a       700     1     4     2    20
  2.4466331134110814E-03 a       701     1     5     2     1
  5.4442344966892009E-01 a       702     1     5     2     2
  5.3524358847789200E-01 a       703     1     5     2     3
  2.5022738049991033E-01 a       704     1     5     2     4
 -1.9001013690970240E-02 a       705     1     5     2     5
 -1.0022960042095556E-01 a       706     1     5     2     6
  2.5053062650222870E-02 a       707     1     5     2     7
 -1.6404087491018993E-01 a       708     1     5     2     8
  4.1863758789939937E-01 a       709     1     5     2     9
  4.8139316413576529E-02 a       710     1     5     2    10
  4.3713614596573069E-01 a       711     1     5     2    11
  2.9450522069253893E-01 a       712     1     5     2    12
  3.1654205792628493E-01 a       713     1     5     2    13
  1.2925368542698702E-02 a       714     1     5     2    14
  3.9179320572214915E-01 a       715     1     5     2    15
  1.2694390357658544E-01 a       716     1     5     2    16
  8.1455444599922944E-01 a       717     1     5     2    17
 -1.4641126100198040E-01 a       718     1     5     2    18
  1.1110158290318470E-01 a       719     1     5     2    19
  4.6443802518592742E-01 a       720     1     5     2    20
  2.9035522334352054E-01 a       721     1     6     2     1
  6.9128235201854149E-03 a       722     1     6     2     2
  6.1032562151465231E-01 a       723     1     6     2     3
 -2.0296630772969854E-01 a       724     1     6     2     4
  7.6638472576574732E-02 a       725     1     6     2     5
  1.7783569011397624E-01 a       726     1     6     2     6
 -1.0352433144431339E-01 a       727     1     6     2     7
 -1.7248812681455489E-01 a       728     1     6     2     8
  2.1333180585158384E-01 a       729     1     6     2     9
  1.0431132427422592E-01 a       730     1     6     2    10
  1.8030973412934892E-01 a       731     1     6     2    11
  2.4742530234981755E-02 a       732     1     6     2    12
 -5.5577993151976013E-01 a       733     1     6     2    13
 -3.2137535981476334E-01 a       734     1     6     2    14
  1.4803362610850276E-01 a       735     1     6     2    15
 -4.2154428018205081E-01 a       736     1     6     2    16
 -1.2545872262031052E-01 a       737     1     6     2    17
  1.4044729205337008E-02 a       738     1     6     2    18
  1.0122123699519704E-01 a       739     1     6     2    19
 -8.4045457954099369E-03 a       740     1     6     2    20
  4.0942194697785594E-01 a       741     1     7     2     1
 -2.2284188372932792E-01 a       742     1     7     2     2
 -4.3441155120002029E-01 a       743     1     7     2     3
 -7.2707888674073795E-02 a       744     1     7     2     4
  4.9333461613443447E-01 a       745     1     7     2     5
  4.4934123496792183E-02 a       746     1     7     2     6
  2.2403588509049052E-01 a       747     1     7     2     7
 -5.6861681958482124E-01 a       748     1     7     2     8
 -8.5255963522367834E-02 a       749     1     7     2     9
 -2.8884732357936899E-01 a       750     1     7     2    10
 -2.1347010419566315E-01 a       751     1     7     2    11
 -3.1606958351378556E-02 a       752     1     7     2    12
 -2.2147651154099376E-01 a       753     1     7     2    13
 -4.1489715556257634E-01 a       754     1     7     2    14
 -8.3212059641108328E-03 a       755     1     7     2    15
  2.4616879283494159E-01 a       756     1     7     2    16
  3.1978261540144104E-02 a       757     1     7     2    17
 -7.2975772110255410E-02 a       758     1     7     2    18
  6.1428905820997604E-01 a       759     1     7     2    19
  1.3481729198111866E-01 a       760     1     7     2    20
 -3.9412120076968310E-01 a       761     1     8     2     1
 -5.3817981357873312E-01 a       762     1     8     2     2
  6.2002621454426188E-01 a       763     1     8     2     3
 -3.4258242083120377E-01 a       764     1     8     2     4
 -4.3836023694954415E-02 a       765     1     8     2     5
  6.6137978730816838E-02 a       766     1     8     2     6
  3.6270401817969297E-02 a       767     1     8     2     7
  5.9725769645537363E-01 a       768     1     8     2     8
 -2.2518046370900943E-01 a       769     1     8     2     9
  3.1985617358261453E-01 a       770     1     8     2    10
 -3.2476484664693345E-01 a       771     1     8     2    11
 -1.7404699629184536E-01 a       772     1     8     2    12
 -1.1755743673808562E-01 a       773     1     8     2    13
  1.8892806231050871E-01 a       774     1     8     2    14
  3.0022194428336008E-01 a       775     1     8     2    15
 -5.1988971100248860E-02 a       776     1     8     2    16
 -5.1835020440183732E-01 a       777     1     8     2    17
  1.0157389014368332E+00 a       778     1     8     2    18
  1.5514669926271424E-01 a       779     1     8     2    19
  1.6590764077250417E-01 a       780     1     8     2    20
 -4.1250032046323304E-01 a       781     1     9     2     1
  9.7326734974491971E-02 a       782     1     9     2     2
 -2.3854888061660873E-01 a       783     1     9     2     3
 -3.3685261948353057E-02 a       784     1     9     2     4
 -1.4276931675942384E-01 a       785     1     9     2     5
 -2.4306159746281619E-01 a       786     1     9     2     6
 -1.4657250988275453E-01 a       787     1     9     2     7
  6.3734106406993285E-01 a       788     1     9     2     8
  2.6478876857646916E-01 a       789     1     9     2     9
  2.5968110646443648E-01 a       790     1     9     2    10
  1.2162767651010341E-01 a       791     1     9     2    11
  6.4949193215304481E-03 a       792     1     9     2    12
  8.8732895762488009E-02 a       793     1     9     2    13
 -2.5465127725359077E-01 a       794     1     9     2    14
  9.8382212040153738E-02 a       795     1     9     2    15
  3.7541727694126636E-01 a       796     1     9     2    16
 -2.8495064891491863E-02 a       797     1     9     2    17
 -9.2123977640394328E-01 a       798     1     9     2    18
 -3.3838730357721919E-01 a       799     1     9     2    19
 -6.1535617449725716E-02 a       800     1     9     2    20
  5.2565658383279301E-01 a       801     1    10     2     1
  3.3095210028292760E-01 a       802     1    10     2     2
 -2.7193637617307459E-01 a       803     1    10     2     3
  3.9490309895441289E-01 a       804     1    10     2     4
  2.9131009823768617E-01 a       805     1    10     2     5
 -5.5594130001670217E-01 a       806     1    10     2     6
  3.4485342936198221E-01 a       807     1    10     2     7
 -6.5120438243025458E-01 a       808     1    10     2     8
  2.4549636476195585E-01 a       809     1    10     2     9
 -1.8916048874235272E-02 a       810     1    10     2    10
  6.3956320255999533E-01 a       811     1    10     2    11
  3.1221694457738602E-01 a       812     1    10     2    12
  5.3546711233555788E-01 a       813     1    10     2    13
 -4.4516647112688540E-01 a       814     1    10     2    14
  2.2522302691575548E-03 a       815     1    10     2    15
 -3.8558936246753178E-01 a       816     1    10     2    16
  6.0558381748949885E-01 a       817     1    10     2    17
 -3.4130738296443766E-02 a       818     1    10     2    18
  2.5071448065206842E-01 a       819     1    10     2    19
  5.5469094021337761E-02 a       820     1    10     2    20
 -2.9369531907755771E-02 a       821     1    11     2     1
 -2.3390682437069069E-01 a       822     1    11     2     2
  9.5806557234867185E-01 a       823     1    11     2     3
 -5.3713625693418277E-01 a       824     1    11     2     4
 -3.6431114250062729E-01 a       825     1    11     2     5
  2.9212336609752757E-02 a       826     1    11     2     6
 -2.2409265775613621E-01 a       827     1    11     2     7
  2.1594290510004105E-01 a       828     1    11     2     8
  2.1345215370089912E-01 a       829     1    11     2     9
 -1.0053023985326567E-01 a       830     1    11     2    10
 -5.3930297034920138E-02 a       831     1    11     2    11
 -5.2669743620742715E-01 a       832     1    11     2    12
  3.4048962129558558E-01 a       833     1    11     2    13
  2.0647570523050512E-01 a       834     1    11     2    14
  5.7671046136416826E-01 a       835     1    11     2    15
  5.0707519659393782E-02 a       836     1    11     2    16
 -2.5823680017920758E-01 a       837     1    11     2    17
 -1.5553465071398997E-01 a       838     1    11     2    18
  2.9526670148661799E-01 a       839     1    11     2    19
 -2.2605157318615460E-01 a       840     1    11     2    20
 -1.1471439515311747E-01 a       841     1    12     2     1
 -3.4851671200427087E-01 a       842     1    12     2     2
  2.5081589344182631E-01 a       843     1    12     2     3
  1.7182154208505687E-01 a       844     1    12     2     4
 -1.9009886381751737E-01 a       845     1    12     2     5
  2.9718340963065703E-02 a       846     1    12     2     6
 -3.2610605264927706E-01 a       847     1    12     2     7
  2.3550279442440164E-01 a       848     1    12     2     8
 -5.0362484952862130E-01 a       849     1    12     2     9
  1.8483565747867800E-01 a       850     1    12     2    10
 -2.4480996928308515E-01 a       851     1    12     2    11
 -3.3175868467664860E-01 a       852     1    12     2    12
 -1.2598632460041348E-01 a       853     1    12     2    13
 -3.8780476832070931E-01 a       854     1    12     2    14
  1.3345520257820187E-01 a       855     1    12     2    15
  9.8848393337987328E-01 a       856     1    12     2    16
 -2.2834090743403276E-01 a       857     1    12     2    17
 -2.4659532872375667E-01 a       858     1    12     2    18
  4.5630460523630297E-02 a       859     1    12     2    19
  1.3004316305667984E-01 a       860     1    12     2    20
  4.2830146975365152E-01 a       861     1    13     2     1
 -2.7013046656716744E-01 a       862     1    13     2     2
  2.1042941506456528E-01 a       863     1    13     2     3
 -2.4612020415739299E-02 a       864     1    13     2     4
 -4.6419126047410236E-01 a       865     1    13     2     5
  1.9812241053210600E-01 a       866     1    13     2     6
 -5.2291057022737994E-02 a       867     1    13     2     7
 -7.2515208417792992E-02 a       868     1    13     2     8
  3.1742319090596126E-02 a       869     1    13     2     9
 -5.0183810377334570E-01 a       870     1    13     2    10
 -3.0659410009315058E-01 a       871     1    13     2    11
 -1.1481577651848494E-01 a       872     1    13     2    12
 -8.5652177548194691E-03 a       873     1    13     2    13
 -7.4001377367543100E-02 a       874     1    13     2    14
  3.0358743004163080E-01 a       875     1    13     2    15
  2.0284519240245877E-01 a       876     1    13     2    16
  6.5632434136421369E-01 a       877     1    13     2    17
  7.1897047259955404E-01 a       878     1    13     2    18
  3.1630183893224056E-01 a       879     1    13     2    19
  3.8023900852320647E-01 a       880     1    13     2    20
  7.2294944581137175E-03 a       881     1    14     2     1
  8.5238210152254287E-02 a       882     1    14     2     2
  8.9621755760914953E-02 a       883     1    14     2     3
  3.9890559174960361E-01 a       884     1    14     2     4
  3.2619946862591159E-01 a       885     1    14     2     5
  2.6630537218252026E-01 a       886     1    14     2     6
  4.3076782883385839E-01 a       887     1    14     2     7
 -3.8497144989217180E-01 a       888     1    14     2     8
  3.7686984683536051E-01 a       889     1    14     2     9
  3.1177030969521674E-01 a       890     1    14     2    10
  2.7980080663241463E-01 a       891     1    14     2    11
 -3.5612660535594909E-01 a       892     1    14     2    12
  3.0918161493748469E-01 a       893     1    14     2    13
 -1.1871859115304101E-01 a       894     1    14     2    14
  3.0199735509136272E-01 a       895     1    14     2    15
  3.5097087609015076E-01 a       896     1    14     2    16
  2.3855382404501874E-02 a       897     1    14     2    17
 -4.1454608548554657E-02 a       898     1    14     2    18
  5.2467996227330414E-02 a       899     1    14     2    19
 -3.2918989342525490E-01 a       900     1    14     2    20
 -3.4642283610382807E-01 a       901     1    15     2     1
  1.9220649817897775E-01 a       902     1    15     2     2
 -4.9433377671580424E-02 a       903     1    15     2     3
  2.0395899967466122E-01 a       904     1    15     2     4
 -3.0475136415592335E-01 a       905     1    15     2     5
 -3.3028020051972862E-02 a       906     1    15     2     6
 -3.6208252836871502E-01 a       907     1    15     2     7
  1.4233260545198090E-01 a       908     1    15     2     8
  1.3474602946292907E-01 a       909     1    15     2     9
 -1.5968184763722687E-01 a       910     1    15     2    10
 -7.6448701763023361E-02 a       911     1    15     2    11
  7.3115650474405020E-02 a       912     1    15     2    12
  1.2004941528149252E-01 a       913     1    15     2    13
  1.7830820206614209E-01 a       914     1    15     2    14
  2.0615877713842788E-02 a       915     1    15     2    15
  3.4160907190757461E-01 a       916     1    15     2    16
  9.6310411609326962E-02 a       917     1    15     2    17
  2.4623734653686450E-02 a       918     1    15     2    18
  1.7586004755204235E-01 a       919     1    15     2    19
  6.0917445436083684E-01 a       920     1    15     2    20
  1.7346072143614609E-03 a       921     1    16     2     1
  1.3061198499178092E-01 a       922     1    16     2     2
  7.4543521790548672E-01 a       923     1    16     2     3
  1.2293025038331834E-01 a       924     1    16     2     4
 -5.2936255896246731E-01 a       925     1    16     2     5
  3.1823825816457270E-02 a       926     1    16     2     6
 -2.7510966699059680E-01 a       927     1    16     2     7
  4.3824004582193299E-01 a       928     1    16     2     8
 -6.3763932500179379E-02 a       929     1    16     2     9
  3.2035101903028851E-01 a       930     1    16     2    10
 -1.6235644288515821E-01 a       931     1    16     2    11
 -1.2904864976941139E-02 a       932     1    16     2    12
 -3.3443288430121748E-01 a       933     1    16     2    13
  1.9187296336286733E-01 a       934     1    16     2    14
  2.3285737772891021E-01 a       935     1    16     2    15
 -1.2649575971117677E-01 a       936     1    16     2    16
 -3.9734874617614535E-01 a       937     1    16     2    17
 -2.4300115597874500E-01 a       938     1    16     2    18
  2.9298786256136089E-01 a       939     1    16     2    19
 -3.3733869658521022E-02 a       940     1    16     2    20
  3.7079155205614350E-01 a       941     1    17     2     1
  3.1985764937633931E-01 a       942     1    17     2     2
 -2.2980551393609044E-01 a       943     1    17     2     3
  3.3941205620608222E-01 a       944     1    17     2     4
  1.0918728191485665E+00 a       945     1    17     2     5
  1.8628776925137344E-01 a       946     1    17     2     6
  9.8122377320139820E-01 a       947     1    17     2     7
 -3.4154595762890538E-01 a       948     1    17     2     8
 -1.3737957420186866E-01 a       949     1    17     2     9
 -3.3188168017790892E-01 a       950     1    17     2    10
  1.4828088550053720E-01 a       951     1    17     2    11
 -2.6983794024780505E-01 a       952     1    17     2    12
  8.7206178680489088E-01 a       953     1    17     2    13
 -3.9548664437792386E-01 a       954     1    17     2    14
  6.9221329446256849E-02 a       955     1    17     2    15
  2.8682130490141700E-01 a       956     1    17     2    16
 -2.9427726269266080E-01 a       957     1    17     2    17
 -8.9407016562504971E-01 a       958     1    17     2    18
 -3.4874912822702477E-02 a       959     1    17     2    19
  1.8930519893970649E-01 a       960     1    17     2    20
 -6.7870405970570813E-02 a       961     1    18     2     1
  6.4235483749004910E-02 a       962     1    18     2     2
 -2.3698386747754888E-01 a       963     1    18     2     3
 -1.3038013654482267E-01 a       964     1    18     2     4
  1.1550745923641557E-01 a       965     1    18     2     5
 -1.1577112982076850E-01 a       966     1    18     2     6
  7.0082333054325818E-01 a       967     1    18     2     7
 -3.7526543248672684E-01 a       968     1    18     2     8
  8.7033350934594056E-01 a       969     1    18     2     9
 -9.3630990563177238E-02 a       970     1    18     2    10
 -1.1239578000117670E-01 a       971     1    18     2    11
  7.2916978351214079E-02 a       972     1    18     2    12
 -1.6124806931076810E-01 a       973     1    18     2    13
  3.0377868813680009E-01 a       974     1    18     2    14
 -4.6203132182267526E-01 a       975     1    18     2    15
 -8.8549627216811977E-01 a       976     1    18     2    16
  3.3266551553925722E-01 a       977     1    18     2    17
 -9.4674069652032644E-01 a       978     1    18     2    18
 -3.0240523173095757E-01 a       979     1    18     2    19
 -8.5862281816858188E-01 a       980     1    18     2    20
  5.9763316203779449E-01 a       981     1    19     2     1
  3.0964091639386537E-01 a       982     1    19     2     2
  2.7030106214312971E-01 a       983     1    19     2     3
  3.4652843913653752E-02 a       984     1    19     2     4
  1.8137030038586266E-01 a       985     1    19     2     5
  1.2268208999081817E-01 a       986     1    19     2     6
  1.9193828418624836E-01 a       987     1    19     2     7
  1.7638897621167796E-01 a       988     1    19     2     8
 -4.2012416346325832E-01 a       989     1    19     2     9
  5.2453979554215477E-02 a       990     1    19     2    10
  7.0639850982307989E-02 a       991     1    19     2    11
 -3.0096869788813047E-01 a       992     1    19     2    12
 -1.4064052837048981E-02 a       993     1    19     2    13
 -5.3652415698910061E-01 a       994     1    19     2    14
  6.6641573003637788E-01 a       995     1    19     2    15
  3.1611154008359266E-01 a       996     1    19     2    16
  3.5813752544348193E-01 a       997     1    19     2    17
 -2.1068501889911279E-01 a       998     1    19     2    18
 -3.3963469310588290E-01 a       999     1    19     2    19
 -4.4029399113019779E-01 a      1000     1    19     2    20
 -2.1025778692828048E-01 a      1001     1    20     2     1
  1.0123780671639160E-01 a      1002     1    20     2     2
  7.8299525498267508E-01 a      1003     1    20     2     3
 -2.2696658797738858E-01 a      1004     1    20     2     4
 -7.3179043529999854E-01 a      1005     1    20     2     5
 -4.8093238067674765E-01 a      1006     1    20     2     6
  2.5996225980439752E-01 a      1007     1    20     2     7
  4.8300028306560112E-02 a      1008     1    20     2     8
 -2.5096754123158255E-01 a      1009     1    20     2     9
 -5.3640719795581104E-01 a      1010     1    20     2    10
 -8.9387929318903714E-02 a      1011     1    20     2    11
 -2.5284853405911617E-01 a      1012     1    20     2    12
  1.5221411911796778E-01 a      1013     1    20     2    13
  3.1392559588156360E-01 a      1014     1    20     2    14
  8.2672838194766826E-02 a      1015     1    20     2    15
 -1.3862593891399902E-01 a      1016     1    20     2    16
  1.1581172964907434E-01 a      1017     1    20     2    17
 -3.3698513769556199E-01 a      1018     1    20     2    18
  4.1990453682369572E-01 a      1019     1    20     2    19
 -3.0345953236952095E-01 a      1020     1    20     2    20
  1.2009776459164061E-01 b      1021     2     1
 -1.9366619900842200E-01 b      1022     2     2
 -5.4231300143419958E-01 b      1023     2     3
  3.4267850019684359E-01 b      1024     2     4
 -3.0580988089128741E-01 b      1025     2     5
  1.9596415134470288E-01 b      1026     2     6
 -1.3707067262798373E-01 b      1027     2     7
 -3.4229359927504427E-01 b      1028     2     8
 -9.7471595124060520E-02 b      1029     2     9
 -1.4322669629410389E-01 b      1030     2    10
  4.7282444814600944E-01 b      1031     2    11
  2.6721956466271612E-01 b      1032     2    12
 -1.4662725865205883E-01 b      1033     2    13
  6.6349019971786563E-02 b      1034     2    14
 -1.5339174527011920E-01 b      1035     2    15
  1.0040738049261064E-01 b      1036     2    16
  5.0534857970498859E-01 b      1037     2    17
  1.5453973305259389E-01 b      1038     2    18
 -5.7106695039324511E-03 b      1039     2    19
 -1.9732952638213266E-01 b      1040     2    20
 -5.0458904226824874E-01 a      1041     2     1     3     1
 -4.7225992602700517E-01 a      1042     2     2     3     1
 -8.7290867818504897E-02 a      1043     2     3     3     1
  5.8473617934004896E-01 a      1044     2     4     3     1
  2.2759245836683351E-01 a      1045     2     5     3     1
  1.3805341254655590E-01 a      1046     2     6     3     1
 -3.0755830214610769E-01 a      1047     2     7     3     1
  5.3703967855671131E-01 a      1048     2     8     3     1
  3.0388030330460408E-01 a      1049     2     9     3     1
 -3.4170295208274060E-01 a      1050     2    10     3     1
 -3.3712787175348630E-01 a      1051     2    11     3     1
  3.3041055992229035E-01 a      1052     2    12     3     1
  3.8445087713902637E-01 a      1053     2    13     3     1
 -2.6353801331579801E-01 a      1054     2    14     3     1
  2.2045536675223631E-01 a      1055     2    15     3     1
 -1.1473011402533997E-01 a      1056     2    16     3     1
  2.0527362152103604E-01 a      1057     2    17     3     1
  5.0775067788087297E-02 a      1058     2    18     3     1
  1.2730054402750327E-01 a      1059     2    19     3     1
 -4.5583933799963294E-01 a      1060     2    20     3     1
 -2.6959674722254710E-03 b      1061     3     1
